digraph Tree {
node [shape=box, style="filled, rounded", color="black", fontname=helvetica] ;
edge [fontname=helvetica] ;
0 [label="JS-benefit2-work_meals <= 0.5\ngini = 0.51\nsamples = 47\nvalue = [14, 12, 49]\nclass = 2", fillcolor="#8139e592"] ;
1 [label="JOB-problem_solving_required-no <= 0.5\ngini = 0.46\nsamples = 45\nvalue = [14, 7, 49]\nclass = 2", fillcolor="#8139e59f"] ;
0 -> 1 [labeldistance=2.5, labelangle=45, headlabel="True"] ;
2 [label="JOB-num_vacancies <= 27.5\ngini = 0.53\nsamples = 11\nvalue = [10, 1, 6]\nclass = 0", fillcolor="#e581395d"] ;
1 -> 2 ;
3 [label="JS-major-social_science <= 0.5\ngini = 0.57\nsamples = 9\nvalue = [5, 1, 6]\nclass = 2", fillcolor="#8139e524"] ;
2 -> 3 ;
4 [label="JOB-num_vacancies <= 19.0\ngini = 0.54\nsamples = 8\nvalue = [3, 1, 6]\nclass = 2", fillcolor="#8139e56d"] ;
3 -> 4 ;
5 [label="JOB-work_permit_offered-no <= 0.5\ngini = 0.44\nsamples = 7\nvalue = [3, 0, 6]\nclass = 2", fillcolor="#8139e57f"] ;
4 -> 5 ;
6 [label="JS-highest_edu_level-bachelors <= 0.5\ngini = 0.44\nsamples = 3\nvalue = [2, 0, 1]\nclass = 0", fillcolor="#e581397f"] ;
5 -> 6 ;
7 [label="JOB-physical_work_abilities_required-no <= 0.5\ngini = 0.5\nsamples = 2\nvalue = [1, 0, 1]\nclass = 0", fillcolor="#e5813900"] ;
6 -> 7 ;
8 [label="gini = 0.0\nsamples = 1\nvalue = [0, 0, 1]\nclass = 2", fillcolor="#8139e5ff"] ;
7 -> 8 ;
9 [label="gini = 0.0\nsamples = 1\nvalue = [1, 0, 0]\nclass = 0", fillcolor="#e58139ff"] ;
7 -> 9 ;
10 [label="gini = 0.0\nsamples = 1\nvalue = [1, 0, 0]\nclass = 0", fillcolor="#e58139ff"] ;
6 -> 10 ;
11 [label="JOB-numeracy_requied-no <= 0.5\ngini = 0.28\nsamples = 4\nvalue = [1, 0, 5]\nclass = 2", fillcolor="#8139e5cc"] ;
5 -> 11 ;
12 [label="gini = 0.0\nsamples = 1\nvalue = [1, 0, 0]\nclass = 0", fillcolor="#e58139ff"] ;
11 -> 12 ;
13 [label="gini = 0.0\nsamples = 3\nvalue = [0, 0, 5]\nclass = 2", fillcolor="#8139e5ff"] ;
11 -> 13 ;
14 [label="gini = 0.0\nsamples = 1\nvalue = [0, 1, 0]\nclass = 1", fillcolor="#39e581ff"] ;
4 -> 14 ;
15 [label="gini = 0.0\nsamples = 1\nvalue = [2, 0, 0]\nclass = 0", fillcolor="#e58139ff"] ;
3 -> 15 ;
16 [label="gini = 0.0\nsamples = 2\nvalue = [5, 0, 0]\nclass = 0", fillcolor="#e58139ff"] ;
2 -> 16 ;
17 [label="JS-years_education <= 16.5\ngini = 0.32\nsamples = 34\nvalue = [4, 6, 43]\nclass = 2", fillcolor="#8139e5c9"] ;
1 -> 17 ;
18 [label="JS-second_job_field_preference-sewing <= 0.5\ngini = 0.25\nsamples = 31\nvalue = [2, 5, 43]\nclass = 2", fillcolor="#8139e5d7"] ;
17 -> 18 ;
19 [label="JOB-dorm_covered-yes <= 0.5\ngini = 0.22\nsamples = 30\nvalue = [1, 5, 43]\nclass = 2", fillcolor="#8139e5dc"] ;
18 -> 19 ;
20 [label="JS-has_job-1 <= 0.5\ngini = 0.13\nsamples = 27\nvalue = [1, 2, 42]\nclass = 2", fillcolor="#8139e5ed"] ;
19 -> 20 ;
21 [label="JOB-noncognitive_skill_preference1-agreeableness <= 0.5\ngini = 0.05\nsamples = 25\nvalue = [1, 0, 41]\nclass = 2", fillcolor="#8139e5f9"] ;
20 -> 21 ;
22 [label="gini = 0.0\nsamples = 20\nvalue = [0, 0, 34]\nclass = 2", fillcolor="#8139e5ff"] ;
21 -> 22 ;
23 [label="JS-years_education <= 14.0\ngini = 0.22\nsamples = 5\nvalue = [1, 0, 7]\nclass = 2", fillcolor="#8139e5db"] ;
21 -> 23 ;
24 [label="gini = 0.0\nsamples = 3\nvalue = [0, 0, 4]\nclass = 2", fillcolor="#8139e5ff"] ;
23 -> 24 ;
25 [label="JS-days_willing_train_unpaid <= 8.5\ngini = 0.38\nsamples = 2\nvalue = [1, 0, 3]\nclass = 2", fillcolor="#8139e5aa"] ;
23 -> 25 ;
26 [label="gini = 0.0\nsamples = 1\nvalue = [0, 0, 3]\nclass = 2", fillcolor="#8139e5ff"] ;
25 -> 26 ;
27 [label="gini = 0.0\nsamples = 1\nvalue = [1, 0, 0]\nclass = 0", fillcolor="#e58139ff"] ;
25 -> 27 ;
28 [label="JS-age <= 20.5\ngini = 0.44\nsamples = 2\nvalue = [0, 2, 1]\nclass = 1", fillcolor="#39e5817f"] ;
20 -> 28 ;
29 [label="gini = 0.0\nsamples = 1\nvalue = [0, 0, 1]\nclass = 2", fillcolor="#8139e5ff"] ;
28 -> 29 ;
30 [label="gini = 0.0\nsamples = 1\nvalue = [0, 2, 0]\nclass = 1", fillcolor="#39e581ff"] ;
28 -> 30 ;
31 [label="JS-highest_edu_level-intermediate <= 0.5\ngini = 0.38\nsamples = 3\nvalue = [0, 3, 1]\nclass = 1", fillcolor="#39e581aa"] ;
19 -> 31 ;
32 [label="gini = 0.0\nsamples = 2\nvalue = [0, 3, 0]\nclass = 1", fillcolor="#39e581ff"] ;
31 -> 32 ;
33 [label="gini = 0.0\nsamples = 1\nvalue = [0, 0, 1]\nclass = 2", fillcolor="#8139e5ff"] ;
31 -> 33 ;
34 [label="gini = 0.0\nsamples = 1\nvalue = [1, 0, 0]\nclass = 0", fillcolor="#e58139ff"] ;
18 -> 34 ;
35 [label="JOB-speech_disability_accepted-no <= 0.5\ngini = 0.44\nsamples = 3\nvalue = [2, 1, 0]\nclass = 0", fillcolor="#e581397f"] ;
17 -> 35 ;
36 [label="gini = 0.0\nsamples = 1\nvalue = [1, 0, 0]\nclass = 0", fillcolor="#e58139ff"] ;
35 -> 36 ;
37 [label="JS-second_job_field_preference-production <= 0.5\ngini = 0.5\nsamples = 2\nvalue = [1, 1, 0]\nclass = 0", fillcolor="#e5813900"] ;
35 -> 37 ;
38 [label="gini = 0.0\nsamples = 1\nvalue = [0, 1, 0]\nclass = 1", fillcolor="#39e581ff"] ;
37 -> 38 ;
39 [label="gini = 0.0\nsamples = 1\nvalue = [1, 0, 0]\nclass = 0", fillcolor="#e58139ff"] ;
37 -> 39 ;
40 [label="gini = 0.0\nsamples = 2\nvalue = [0, 5, 0]\nclass = 1", fillcolor="#39e581ff"] ;
0 -> 40 [labeldistance=2.5, labelangle=-45, headlabel="False"] ;
}