digraph Tree {
node [shape=box, style="filled, rounded", color="black", fontname=helvetica] ;
edge [fontname=helvetica] ;
0 [label="JOB-problem_solving_required-no <= 0.5\ngini = 0.56\nsamples = 47\nvalue = [26, 7, 42]\nclass = 2", fillcolor="#8139e553"] ;
1 [label="JOB-female_requied-no <= 0.5\ngini = 0.24\nsamples = 15\nvalue = [19, 0, 3]\nclass = 0", fillcolor="#e58139d7"] ;
0 -> 1 [labeldistance=2.5, labelangle=45, headlabel="True"] ;
2 [label="MATCH-interest_applying-1 <= 0.5\ngini = 0.42\nsamples = 6\nvalue = [7, 0, 3]\nclass = 0", fillcolor="#e5813992"] ;
1 -> 2 ;
3 [label="gini = 0.0\nsamples = 1\nvalue = [0, 0, 2]\nclass = 2", fillcolor="#8139e5ff"] ;
2 -> 3 ;
4 [label="JS-nonarab_coworkers-0 <= 0.5\ngini = 0.22\nsamples = 5\nvalue = [7, 0, 1]\nclass = 0", fillcolor="#e58139db"] ;
2 -> 4 ;
5 [label="gini = 0.0\nsamples = 4\nvalue = [7, 0, 0]\nclass = 0", fillcolor="#e58139ff"] ;
4 -> 5 ;
6 [label="gini = 0.0\nsamples = 1\nvalue = [0, 0, 1]\nclass = 2", fillcolor="#8139e5ff"] ;
4 -> 6 ;
7 [label="gini = 0.0\nsamples = 9\nvalue = [12, 0, 0]\nclass = 0", fillcolor="#e58139ff"] ;
1 -> 7 ;
8 [label="JS-benefit2-housing_subsidy <= 0.5\ngini = 0.42\nsamples = 32\nvalue = [7, 7, 39]\nclass = 2", fillcolor="#8139e5b1"] ;
0 -> 8 [labeldistance=2.5, labelangle=-45, headlabel="False"] ;
9 [label="JS-benefit1-work_permit <= 0.5\ngini = 0.37\nsamples = 30\nvalue = [4, 7, 38]\nclass = 2", fillcolor="#8139e5bc"] ;
8 -> 9 ;
10 [label="JOB-job_production-machine_operator <= 0.5\ngini = 0.32\nsamples = 29\nvalue = [2, 7, 38]\nclass = 2", fillcolor="#8139e5c6"] ;
9 -> 10 ;
11 [label="JOB-literacy_required-yes <= 0.5\ngini = 0.45\nsamples = 20\nvalue = [2, 7, 21]\nclass = 2", fillcolor="#8139e59b"] ;
10 -> 11 ;
12 [label="JS-gender-female <= 0.5\ngini = 0.12\nsamples = 11\nvalue = [1, 0, 15]\nclass = 2", fillcolor="#8139e5ee"] ;
11 -> 12 ;
13 [label="gini = 0.44\nsamples = 2\nvalue = [1, 0, 2]\nclass = 2", fillcolor="#8139e57f"] ;
12 -> 13 ;
14 [label="gini = 0.0\nsamples = 9\nvalue = [0, 0, 13]\nclass = 2", fillcolor="#8139e5ff"] ;
12 -> 14 ;
15 [label="JOB-noncognitive_skill_preference1-agreeableness <= 0.5\ngini = 0.56\nsamples = 9\nvalue = [1, 7, 6]\nclass = 1", fillcolor="#39e58120"] ;
11 -> 15 ;
16 [label="JS-second_job_field_preference-repair <= 0.5\ngini = 0.57\nsamples = 6\nvalue = [1, 3, 5]\nclass = 2", fillcolor="#8139e555"] ;
15 -> 16 ;
17 [label="JS-benefit1-bus_service <= 0.5\ngini = 0.64\nsamples = 3\nvalue = [1, 2, 2]\nclass = 1", fillcolor="#39e58100"] ;
16 -> 17 ;
18 [label="JS-distance_willing_to_travel <= 45.0\ngini = 0.5\nsamples = 2\nvalue = [0, 2, 2]\nclass = 1", fillcolor="#39e58100"] ;
17 -> 18 ;
19 [label="gini = 0.0\nsamples = 1\nvalue = [0, 0, 2]\nclass = 2", fillcolor="#8139e5ff"] ;
18 -> 19 ;
20 [label="gini = 0.0\nsamples = 1\nvalue = [0, 2, 0]\nclass = 1", fillcolor="#39e581ff"] ;
18 -> 20 ;
21 [label="gini = 0.0\nsamples = 1\nvalue = [1, 0, 0]\nclass = 0", fillcolor="#e58139ff"] ;
17 -> 21 ;
22 [label="JS-has_job-1 <= 0.5\ngini = 0.38\nsamples = 3\nvalue = [0, 1, 3]\nclass = 2", fillcolor="#8139e5aa"] ;
16 -> 22 ;
23 [label="JS-highest_edu_level-college <= 0.5\ngini = 0.5\nsamples = 2\nvalue = [0, 1, 1]\nclass = 1", fillcolor="#39e58100"] ;
22 -> 23 ;
24 [label="gini = 0.0\nsamples = 1\nvalue = [0, 1, 0]\nclass = 1", fillcolor="#39e581ff"] ;
23 -> 24 ;
25 [label="gini = 0.0\nsamples = 1\nvalue = [0, 0, 1]\nclass = 2", fillcolor="#8139e5ff"] ;
23 -> 25 ;
26 [label="gini = 0.0\nsamples = 1\nvalue = [0, 0, 2]\nclass = 2", fillcolor="#8139e5ff"] ;
22 -> 26 ;
27 [label="JS-age <= 24.0\ngini = 0.32\nsamples = 3\nvalue = [0, 4, 1]\nclass = 1", fillcolor="#39e581bf"] ;
15 -> 27 ;
28 [label="gini = 0.0\nsamples = 2\nvalue = [0, 4, 0]\nclass = 1", fillcolor="#39e581ff"] ;
27 -> 28 ;
29 [label="gini = 0.0\nsamples = 1\nvalue = [0, 0, 1]\nclass = 2", fillcolor="#8139e5ff"] ;
27 -> 29 ;
30 [label="gini = 0.0\nsamples = 9\nvalue = [0, 0, 17]\nclass = 2", fillcolor="#8139e5ff"] ;
10 -> 30 ;
31 [label="gini = 0.0\nsamples = 1\nvalue = [2, 0, 0]\nclass = 0", fillcolor="#e58139ff"] ;
9 -> 31 ;
32 [label="JS-arab_coworkers-0 <= 0.5\ngini = 0.38\nsamples = 2\nvalue = [3, 0, 1]\nclass = 0", fillcolor="#e58139aa"] ;
8 -> 32 ;
33 [label="gini = 0.0\nsamples = 1\nvalue = [0, 0, 1]\nclass = 2", fillcolor="#8139e5ff"] ;
32 -> 33 ;
34 [label="gini = 0.0\nsamples = 1\nvalue = [3, 0, 0]\nclass = 0", fillcolor="#e58139ff"] ;
32 -> 34 ;
}