digraph Tree {
node [shape=box, style="filled, rounded", color="black", fontname=helvetica] ;
edge [fontname=helvetica] ;
0 [label="JOB-education_required-intermediate <= 0.5\ngini = 0.35\nsamples = 68\nvalue = [24, 84]\nclass = 1", fillcolor="#399de5b6"] ;
1 [label="JS-benefit2-bus_service <= 0.5\ngini = 0.3\nsamples = 65\nvalue = [19, 84]\nclass = 1", fillcolor="#399de5c5"] ;
0 -> 1 [labeldistance=2.5, labelangle=45, headlabel="True"] ;
2 [label="JS-major-هندسة صناعات كميائيه <= 0.5\ngini = 0.21\nsamples = 57\nvalue = [11, 80]\nclass = 1", fillcolor="#399de5dc"] ;
1 -> 2 ;
3 [label="JS-major-رياضه <= 0.5\ngini = 0.2\nsamples = 56\nvalue = [10, 80]\nclass = 1", fillcolor="#399de5df"] ;
2 -> 3 ;
4 [label="JOB-it_proficiency_required-no <= 0.5\ngini = 0.15\nsamples = 55\nvalue = [7, 80]\nclass = 1", fillcolor="#399de5e9"] ;
3 -> 4 ;
5 [label="JS-benefit2-work_permit <= 0.5\ngini = 0.34\nsamples = 21\nvalue = [7, 25]\nclass = 1", fillcolor="#399de5b8"] ;
4 -> 5 ;
6 [label="JOB-english_proficiency_required-few_phrases <= 0.5\ngini = 0.28\nsamples = 20\nvalue = [5, 25]\nclass = 1", fillcolor="#399de5cc"] ;
5 -> 6 ;
7 [label="JOB-literacy_required-no <= 0.5\ngini = 0.24\nsamples = 19\nvalue = [4, 25]\nclass = 1", fillcolor="#399de5d6"] ;
6 -> 7 ;
8 [label="gini = 0.0\nsamples = 12\nvalue = [0, 18]\nclass = 1", fillcolor="#399de5ff"] ;
7 -> 8 ;
9 [label="JOB-job_production-textile_worker <= 0.5\ngini = 0.46\nsamples = 7\nvalue = [4, 7]\nclass = 1", fillcolor="#399de56d"] ;
7 -> 9 ;
10 [label="gini = 0.0\nsamples = 3\nvalue = [0, 5]\nclass = 1", fillcolor="#399de5ff"] ;
9 -> 10 ;
11 [label="JOB-work_permit_offered-yes <= 0.5\ngini = 0.44\nsamples = 4\nvalue = [4, 2]\nclass = 0", fillcolor="#e581397f"] ;
9 -> 11 ;
12 [label="gini = 0.0\nsamples = 3\nvalue = [4, 0]\nclass = 0", fillcolor="#e58139ff"] ;
11 -> 12 ;
13 [label="gini = 0.0\nsamples = 1\nvalue = [0, 2]\nclass = 1", fillcolor="#399de5ff"] ;
11 -> 13 ;
14 [label="gini = 0.0\nsamples = 1\nvalue = [1, 0]\nclass = 0", fillcolor="#e58139ff"] ;
6 -> 14 ;
15 [label="gini = 0.0\nsamples = 1\nvalue = [2, 0]\nclass = 0", fillcolor="#e58139ff"] ;
5 -> 15 ;
16 [label="gini = 0.0\nsamples = 34\nvalue = [0, 55]\nclass = 1", fillcolor="#399de5ff"] ;
4 -> 16 ;
17 [label="gini = 0.0\nsamples = 1\nvalue = [3, 0]\nclass = 0", fillcolor="#e58139ff"] ;
3 -> 17 ;
18 [label="gini = 0.0\nsamples = 1\nvalue = [1, 0]\nclass = 0", fillcolor="#e58139ff"] ;
2 -> 18 ;
19 [label="JS-second_job_field_preference-driving <= 0.5\ngini = 0.44\nsamples = 8\nvalue = [8, 4]\nclass = 0", fillcolor="#e581397f"] ;
1 -> 19 ;
20 [label="JOB-speech_disability_accepted-yes <= 0.5\ngini = 0.32\nsamples = 7\nvalue = [8, 2]\nclass = 0", fillcolor="#e58139bf"] ;
19 -> 20 ;
21 [label="gini = 0.0\nsamples = 5\nvalue = [8, 0]\nclass = 0", fillcolor="#e58139ff"] ;
20 -> 21 ;
22 [label="gini = 0.0\nsamples = 2\nvalue = [0, 2]\nclass = 1", fillcolor="#399de5ff"] ;
20 -> 22 ;
23 [label="gini = 0.0\nsamples = 1\nvalue = [0, 2]\nclass = 1", fillcolor="#399de5ff"] ;
19 -> 23 ;
24 [label="gini = 0.0\nsamples = 3\nvalue = [5, 0]\nclass = 0", fillcolor="#e58139ff"] ;
0 -> 24 [labeldistance=2.5, labelangle=-45, headlabel="False"] ;
}