digraph Tree {
node [shape=box, style="filled, rounded", color="black", fontname=helvetica] ;
edge [fontname=helvetica] ;
0 [label="JOB-male_required-yes <= 0.5\ngini = 0.5\nsamples = 126\nvalue = [99, 103]\nclass = 1", fillcolor="#399de50a"] ;
1 [label="JS-years_education <= 1.5\ngini = 0.39\nsamples = 62\nvalue = [26, 72]\nclass = 1", fillcolor="#399de5a3"] ;
0 -> 1 [labeldistance=2.5, labelangle=45, headlabel="True"] ;
2 [label="gini = 0.0\nsamples = 1\nvalue = [3, 0]\nclass = 0", fillcolor="#e58139ff"] ;
1 -> 2 ;
3 [label="JOB-noncognitive_skill_preference2-agreeableness <= 0.5\ngini = 0.37\nsamples = 61\nvalue = [23, 72]\nclass = 1", fillcolor="#399de5ae"] ;
1 -> 3 ;
4 [label="JOB-night_shifts_required-no <= 0.5\ngini = 0.42\nsamples = 46\nvalue = [22, 50]\nclass = 1", fillcolor="#399de58f"] ;
3 -> 4 ;
5 [label="gini = 0.0\nsamples = 5\nvalue = [0, 9]\nclass = 1", fillcolor="#399de5ff"] ;
4 -> 5 ;
6 [label="JOB-num_vacancies <= 7.5\ngini = 0.45\nsamples = 41\nvalue = [22, 41]\nclass = 1", fillcolor="#399de576"] ;
4 -> 6 ;
7 [label="JS-highest_edu_level-diploma <= 0.5\ngini = 0.33\nsamples = 21\nvalue = [7, 27]\nclass = 1", fillcolor="#399de5bd"] ;
6 -> 7 ;
8 [label="JS-will_live_in_dorm-1 <= 0.5\ngini = 0.3\nsamples = 20\nvalue = [6, 27]\nclass = 1", fillcolor="#399de5c6"] ;
7 -> 8 ;
9 [label="JS-years_exp <= 5.0\ngini = 0.32\nsamples = 18\nvalue = [6, 24]\nclass = 1", fillcolor="#399de5bf"] ;
8 -> 9 ;
10 [label="JOB-job_category-client_services <= 0.5\ngini = 0.23\nsamples = 13\nvalue = [3, 20]\nclass = 1", fillcolor="#399de5d9"] ;
9 -> 10 ;
11 [label="JOB-transport_subsidy_offered-no <= 0.5\ngini = 0.17\nsamples = 12\nvalue = [2, 20]\nclass = 1", fillcolor="#399de5e6"] ;
10 -> 11 ;
12 [label="gini = 0.0\nsamples = 1\nvalue = [1, 0]\nclass = 0", fillcolor="#e58139ff"] ;
11 -> 12 ;
13 [label="JOB-work_permit_offered-yes <= 0.5\ngini = 0.09\nsamples = 11\nvalue = [1, 20]\nclass = 1", fillcolor="#399de5f2"] ;
11 -> 13 ;
14 [label="gini = 0.0\nsamples = 8\nvalue = [0, 16]\nclass = 1", fillcolor="#399de5ff"] ;
13 -> 14 ;
15 [label="JS-second_job_field_preference-media <= 0.5\ngini = 0.32\nsamples = 3\nvalue = [1, 4]\nclass = 1", fillcolor="#399de5bf"] ;
13 -> 15 ;
16 [label="gini = 0.0\nsamples = 2\nvalue = [0, 4]\nclass = 1", fillcolor="#399de5ff"] ;
15 -> 16 ;
17 [label="gini = 0.0\nsamples = 1\nvalue = [1, 0]\nclass = 0", fillcolor="#e58139ff"] ;
15 -> 17 ;
18 [label="gini = 0.0\nsamples = 1\nvalue = [1, 0]\nclass = 0", fillcolor="#e58139ff"] ;
10 -> 18 ;
19 [label="JOB-job_category-production <= 0.5\ngini = 0.49\nsamples = 5\nvalue = [3, 4]\nclass = 1", fillcolor="#399de540"] ;
9 -> 19 ;
20 [label="JS-second_job_field_preference-production <= 0.5\ngini = 0.32\nsamples = 4\nvalue = [1, 4]\nclass = 1", fillcolor="#399de5bf"] ;
19 -> 20 ;
21 [label="gini = 0.0\nsamples = 2\nvalue = [0, 3]\nclass = 1", fillcolor="#399de5ff"] ;
20 -> 21 ;
22 [label="JS-will_train_unpaid-1 <= 0.5\ngini = 0.5\nsamples = 2\nvalue = [1, 1]\nclass = 0", fillcolor="#e5813900"] ;
20 -> 22 ;
23 [label="gini = 0.0\nsamples = 1\nvalue = [0, 1]\nclass = 1", fillcolor="#399de5ff"] ;
22 -> 23 ;
24 [label="gini = 0.0\nsamples = 1\nvalue = [1, 0]\nclass = 0", fillcolor="#e58139ff"] ;
22 -> 24 ;
25 [label="gini = 0.0\nsamples = 1\nvalue = [2, 0]\nclass = 0", fillcolor="#e58139ff"] ;
19 -> 25 ;
26 [label="gini = 0.0\nsamples = 2\nvalue = [0, 3]\nclass = 1", fillcolor="#399de5ff"] ;
8 -> 26 ;
27 [label="gini = 0.0\nsamples = 1\nvalue = [1, 0]\nclass = 0", fillcolor="#e58139ff"] ;
7 -> 27 ;
28 [label="JS-major-خياطه كليه القدس <= 0.5\ngini = 0.5\nsamples = 20\nvalue = [15, 14]\nclass = 0", fillcolor="#e5813911"] ;
6 -> 28 ;
29 [label="JS-will_work_qiz-0 <= 0.5\ngini = 0.5\nsamples = 19\nvalue = [13, 14]\nclass = 1", fillcolor="#399de512"] ;
28 -> 29 ;
30 [label="JS-distance_willing_to_travel <= 32.5\ngini = 0.49\nsamples = 15\nvalue = [12, 9]\nclass = 0", fillcolor="#e5813940"] ;
29 -> 30 ;
31 [label="gini = 0.0\nsamples = 4\nvalue = [7, 0]\nclass = 0", fillcolor="#e58139ff"] ;
30 -> 31 ;
32 [label="JS-years_education <= 9.0\ngini = 0.46\nsamples = 11\nvalue = [5, 9]\nclass = 1", fillcolor="#399de571"] ;
30 -> 32 ;
33 [label="gini = 0.0\nsamples = 2\nvalue = [3, 0]\nclass = 0", fillcolor="#e58139ff"] ;
32 -> 33 ;
34 [label="JOB-num_vacancies <= 27.5\ngini = 0.3\nsamples = 9\nvalue = [2, 9]\nclass = 1", fillcolor="#399de5c6"] ;
32 -> 34 ;
35 [label="JS-nonarab_coworkers-1 <= 0.5\ngini = 0.2\nsamples = 7\nvalue = [1, 8]\nclass = 1", fillcolor="#399de5df"] ;
34 -> 35 ;
36 [label="Unnamed: 0 <= 50.5\ngini = 0.5\nsamples = 2\nvalue = [1, 1]\nclass = 0", fillcolor="#e5813900"] ;
35 -> 36 ;
37 [label="gini = 0.0\nsamples = 1\nvalue = [0, 1]\nclass = 1", fillcolor="#399de5ff"] ;
36 -> 37 ;
38 [label="gini = 0.0\nsamples = 1\nvalue = [1, 0]\nclass = 0", fillcolor="#e58139ff"] ;
36 -> 38 ;
39 [label="gini = 0.0\nsamples = 5\nvalue = [0, 7]\nclass = 1", fillcolor="#399de5ff"] ;
35 -> 39 ;
40 [label="JS-will_work_night_shift-1 <= 0.5\ngini = 0.5\nsamples = 2\nvalue = [1, 1]\nclass = 0", fillcolor="#e5813900"] ;
34 -> 40 ;
41 [label="gini = 0.0\nsamples = 1\nvalue = [0, 1]\nclass = 1", fillcolor="#399de5ff"] ;
40 -> 41 ;
42 [label="gini = 0.0\nsamples = 1\nvalue = [1, 0]\nclass = 0", fillcolor="#e58139ff"] ;
40 -> 42 ;
43 [label="JS-weekly_days_willing_to_work-6 <= 0.5\ngini = 0.28\nsamples = 4\nvalue = [1, 5]\nclass = 1", fillcolor="#399de5cc"] ;
29 -> 43 ;
44 [label="gini = 0.0\nsamples = 1\nvalue = [1, 0]\nclass = 0", fillcolor="#e58139ff"] ;
43 -> 44 ;
45 [label="gini = 0.0\nsamples = 3\nvalue = [0, 5]\nclass = 1", fillcolor="#399de5ff"] ;
43 -> 45 ;
46 [label="gini = 0.0\nsamples = 1\nvalue = [2, 0]\nclass = 0", fillcolor="#e58139ff"] ;
28 -> 46 ;
47 [label="JS-english_proficiency-few_phrases <= 0.5\ngini = 0.08\nsamples = 15\nvalue = [1, 22]\nclass = 1", fillcolor="#399de5f3"] ;
3 -> 47 ;
48 [label="gini = 0.0\nsamples = 10\nvalue = [0, 16]\nclass = 1", fillcolor="#399de5ff"] ;
47 -> 48 ;
49 [label="JS-second_job_field_preference-production <= 0.5\ngini = 0.24\nsamples = 5\nvalue = [1, 6]\nclass = 1", fillcolor="#399de5d4"] ;
47 -> 49 ;
50 [label="JS-distance_willing_to_travel <= 15.5\ngini = 0.5\nsamples = 2\nvalue = [1, 1]\nclass = 0", fillcolor="#e5813900"] ;
49 -> 50 ;
51 [label="gini = 0.0\nsamples = 1\nvalue = [1, 0]\nclass = 0", fillcolor="#e58139ff"] ;
50 -> 51 ;
52 [label="gini = 0.0\nsamples = 1\nvalue = [0, 1]\nclass = 1", fillcolor="#399de5ff"] ;
50 -> 52 ;
53 [label="gini = 0.0\nsamples = 3\nvalue = [0, 5]\nclass = 1", fillcolor="#399de5ff"] ;
49 -> 53 ;
54 [label="JOB-english_proficiency_required-not_literate <= 0.5\ngini = 0.42\nsamples = 64\nvalue = [73, 31]\nclass = 0", fillcolor="#e5813993"] ;
0 -> 54 [labeldistance=2.5, labelangle=-45, headlabel="False"] ;
55 [label="JS-age <= 28.5\ngini = 0.49\nsamples = 28\nvalue = [20, 26]\nclass = 1", fillcolor="#399de53b"] ;
54 -> 55 ;
56 [label="JS-second_job_field_preference-business <= 0.5\ngini = 0.47\nsamples = 22\nvalue = [14, 24]\nclass = 1", fillcolor="#399de56a"] ;
55 -> 56 ;
57 [label="JOB-hearing_disability_accepted-no <= 0.5\ngini = 0.46\nsamples = 21\nvalue = [13, 24]\nclass = 1", fillcolor="#399de575"] ;
56 -> 57 ;
58 [label="JS-will_train_unpaid-0 <= 0.5\ngini = 0.49\nsamples = 7\nvalue = [8, 6]\nclass = 0", fillcolor="#e5813940"] ;
57 -> 58 ;
59 [label="JS-first_job_field_preference-food <= 0.5\ngini = 0.48\nsamples = 6\nvalue = [4, 6]\nclass = 1", fillcolor="#399de555"] ;
58 -> 59 ;
60 [label="Unnamed: 0 <= 100.5\ngini = 0.44\nsamples = 5\nvalue = [3, 6]\nclass = 1", fillcolor="#399de57f"] ;
59 -> 60 ;
61 [label="gini = 0.0\nsamples = 1\nvalue = [2, 0]\nclass = 0", fillcolor="#e58139ff"] ;
60 -> 61 ;
62 [label="JS-will_work_qiz-1 <= 0.5\ngini = 0.24\nsamples = 4\nvalue = [1, 6]\nclass = 1", fillcolor="#399de5d4"] ;
60 -> 62 ;
63 [label="gini = 0.0\nsamples = 3\nvalue = [0, 6]\nclass = 1", fillcolor="#399de5ff"] ;
62 -> 63 ;
64 [label="gini = 0.0\nsamples = 1\nvalue = [1, 0]\nclass = 0", fillcolor="#e58139ff"] ;
62 -> 64 ;
65 [label="gini = 0.0\nsamples = 1\nvalue = [1, 0]\nclass = 0", fillcolor="#e58139ff"] ;
59 -> 65 ;
66 [label="gini = 0.0\nsamples = 1\nvalue = [4, 0]\nclass = 0", fillcolor="#e58139ff"] ;
58 -> 66 ;
67 [label="Unnamed: 0 <= 169.5\ngini = 0.34\nsamples = 14\nvalue = [5, 18]\nclass = 1", fillcolor="#399de5b8"] ;
57 -> 67 ;
68 [label="gini = 0.0\nsamples = 10\nvalue = [0, 16]\nclass = 1", fillcolor="#399de5ff"] ;
67 -> 68 ;
69 [label="JOB-syrian_considered-yes <= 0.5\ngini = 0.41\nsamples = 4\nvalue = [5, 2]\nclass = 0", fillcolor="#e5813999"] ;
67 -> 69 ;
70 [label="gini = 0.0\nsamples = 2\nvalue = [5, 0]\nclass = 0", fillcolor="#e58139ff"] ;
69 -> 70 ;
71 [label="gini = 0.0\nsamples = 2\nvalue = [0, 2]\nclass = 1", fillcolor="#399de5ff"] ;
69 -> 71 ;
72 [label="gini = 0.0\nsamples = 1\nvalue = [1, 0]\nclass = 0", fillcolor="#e58139ff"] ;
56 -> 72 ;
73 [label="JOB-night_shifts_required-no <= 0.5\ngini = 0.38\nsamples = 6\nvalue = [6, 2]\nclass = 0", fillcolor="#e58139aa"] ;
55 -> 73 ;
74 [label="gini = 0.0\nsamples = 1\nvalue = [0, 1]\nclass = 1", fillcolor="#399de5ff"] ;
73 -> 74 ;
75 [label="JS-arab_coworkers-1 <= 0.5\ngini = 0.24\nsamples = 5\nvalue = [6, 1]\nclass = 0", fillcolor="#e58139d4"] ;
73 -> 75 ;
76 [label="JS-second_job_field_preference-any_job <= 0.5\ngini = 0.44\nsamples = 2\nvalue = [2, 1]\nclass = 0", fillcolor="#e581397f"] ;
75 -> 76 ;
77 [label="gini = 0.0\nsamples = 1\nvalue = [0, 1]\nclass = 1", fillcolor="#399de5ff"] ;
76 -> 77 ;
78 [label="gini = 0.0\nsamples = 1\nvalue = [2, 0]\nclass = 0", fillcolor="#e58139ff"] ;
76 -> 78 ;
79 [label="gini = 0.0\nsamples = 3\nvalue = [4, 0]\nclass = 0", fillcolor="#e58139ff"] ;
75 -> 79 ;
80 [label="JOB-bus_covered-yes <= 0.5\ngini = 0.16\nsamples = 36\nvalue = [53, 5]\nclass = 0", fillcolor="#e58139e7"] ;
54 -> 80 ;
81 [label="gini = 0.0\nsamples = 1\nvalue = [0, 2]\nclass = 1", fillcolor="#399de5ff"] ;
80 -> 81 ;
82 [label="JOB-job_description-personal_care <= 0.5\ngini = 0.1\nsamples = 35\nvalue = [53, 3]\nclass = 0", fillcolor="#e58139f1"] ;
80 -> 82 ;
83 [label="JS-weekly_days_willing_to_work-7 <= 0.5\ngini = 0.07\nsamples = 33\nvalue = [52, 2]\nclass = 0", fillcolor="#e58139f5"] ;
82 -> 83 ;
84 [label="JS-distance_willing_to_travel <= 150.0\ngini = 0.04\nsamples = 32\nvalue = [52, 1]\nclass = 0", fillcolor="#e58139fa"] ;
83 -> 84 ;
85 [label="gini = 0.0\nsamples = 31\nvalue = [52, 0]\nclass = 0", fillcolor="#e58139ff"] ;
84 -> 85 ;
86 [label="gini = 0.0\nsamples = 1\nvalue = [0, 1]\nclass = 1", fillcolor="#399de5ff"] ;
84 -> 86 ;
87 [label="gini = 0.0\nsamples = 1\nvalue = [0, 1]\nclass = 1", fillcolor="#399de5ff"] ;
83 -> 87 ;
88 [label="JS-benefit2-bus_service <= 0.5\ngini = 0.5\nsamples = 2\nvalue = [1, 1]\nclass = 0", fillcolor="#e5813900"] ;
82 -> 88 ;
89 [label="gini = 0.0\nsamples = 1\nvalue = [0, 1]\nclass = 1", fillcolor="#399de5ff"] ;
88 -> 89 ;
90 [label="gini = 0.0\nsamples = 1\nvalue = [1, 0]\nclass = 0", fillcolor="#e58139ff"] ;
88 -> 90 ;
}